Language model created by QuickLM on Thu Feb  5 07:52:44 EST 2015
Copyright (c) 1996-2010 Carnegie Mellon University and Alexander I. Rudnicky

The model is in standard ARPA format, designed by Doug Paul while he was at MITRE.

The code that was used to produce this language model is available in Open Source.
Please visit http://www.speech.cs.cmu.edu/tools/ for more information

The (fixed) discount mass is 0.5. The backoffs are computed using the ratio method.
This model based on a corpus of 5 sentences and 11 words

\data\
ngram 1=11
ngram 2=14
ngram 3=10

\1-grams:
-0.9031 </s> -0.3010
-0.9031 <s> -0.2430
-1.6021 CONTINUE -0.2788
-1.6021 ELEVATOR -0.2430
-1.6021 FOLLOW -0.2900
-1.6021 KENSEIKO -0.2430
-1.6021 LEAVE -0.2900
-1.6021 ME -0.2430
-1.6021 PAUSE -0.2788
-1.3010 SPEECH -0.2430
-1.6021 THE -0.2900

\2-grams:
-1.0000 <s> CONTINUE 0.0000
-1.0000 <s> FOLLOW 0.0000
-1.0000 <s> KENSEIKO 0.0000
-1.0000 <s> LEAVE 0.0000
-1.0000 <s> PAUSE 0.0000
-0.3010 CONTINUE SPEECH 0.0000
-0.3010 ELEVATOR </s> -0.3010
-0.3010 FOLLOW ME 0.0000
-0.3010 KENSEIKO </s> -0.3010
-0.3010 LEAVE THE 0.0000
-0.3010 ME </s> -0.3010
-0.3010 PAUSE SPEECH 0.0000
-0.3010 SPEECH </s> -0.3010
-0.3010 THE ELEVATOR 0.0000

\3-grams:
-0.3010 <s> CONTINUE SPEECH
-0.3010 <s> FOLLOW ME
-0.3010 <s> KENSEIKO </s>
-0.3010 <s> LEAVE THE
-0.3010 <s> PAUSE SPEECH
-0.3010 CONTINUE SPEECH </s>
-0.3010 FOLLOW ME </s>
-0.3010 LEAVE THE ELEVATOR
-0.3010 PAUSE SPEECH </s>
-0.3010 THE ELEVATOR </s>

\end\
