Language model created by QuickLM on Fri May  1 02:03:56 EDT 2015
Copyright (c) 1996-2010 Carnegie Mellon University and Alexander I. Rudnicky

The model is in standard ARPA format, designed by Doug Paul while he was at MITRE.

The code that was used to produce this language model is available in Open Source.
Please visit http://www.speech.cs.cmu.edu/tools/ for more information

The (fixed) discount mass is 0.5. The backoffs are computed using the ratio method.
This model based on a corpus of 7 sentences and 10 words

\data\
ngram 1=10
ngram 2=15
ngram 3=8

\1-grams:
-0.7984 </s> -0.3010
-0.7984 <s> -0.2258
-1.6435 FOLLOW -0.2910
-1.6435 KENSEIKO -0.2258
-1.6435 KENSEIKOCHAN -0.2258
-1.6435 LEAVE -0.2258
-1.6435 ME -0.2258
-1.6435 START -0.2258
-1.6435 STOP -0.2258
-1.6435 TURN -0.2258

\2-grams:
-1.1461 <s> FOLLOW 0.0000
-1.1461 <s> KENSEIKO 0.0000
-1.1461 <s> KENSEIKOCHAN 0.0000
-1.1461 <s> LEAVE 0.0000
-1.1461 <s> START 0.0000
-1.1461 <s> STOP 0.0000
-1.1461 <s> TURN 0.0000
-0.3010 FOLLOW ME 0.0000
-0.3010 KENSEIKO </s> -0.3010
-0.3010 KENSEIKOCHAN </s> -0.3010
-0.3010 LEAVE </s> -0.3010
-0.3010 ME </s> -0.3010
-0.3010 START </s> -0.3010
-0.3010 STOP </s> -0.3010
-0.3010 TURN </s> -0.3010

\3-grams:
-0.3010 <s> FOLLOW ME
-0.3010 <s> KENSEIKO </s>
-0.3010 <s> KENSEIKOCHAN </s>
-0.3010 <s> LEAVE </s>
-0.3010 <s> START </s>
-0.3010 <s> STOP </s>
-0.3010 <s> TURN </s>
-0.3010 FOLLOW ME </s>

\end\
